<?xml version="1.0"?>
<opencv_storage>
<cascade>
  <stageType>BOOST</stageType>
  <featureType>HAAR</featureType>
  <height>20</height>
  <width>20</width>
  <stageParams>
    <boostType>GAB</boostType>
    <minHitRate>9.9500000476837158e-01</minHitRate>
    <maxFalseAlarm>5.0000000000000000e-01</maxFalseAlarm>
    <weightTrimRate>9.4999999999999996e-01</weightTrimRate>
    <maxDepth>1</maxDepth>
    <maxWeakCount>100</maxWeakCount></stageParams>
  <featureParams>
    <maxCatCount>0</maxCatCount>
    <featSize>1</featSize>
    <mode>BASIC</mode></featureParams>
  <stageNum>7</stageNum>
  <stages>
    <!-- stage 0 -->
    <_>
      <maxWeakCount>1</maxWeakCount>
      <stageThreshold>8.8235294818878174e-01</stageThreshold>
      <weakClassifiers>
        <_>
          <internalNodes>
            0 -1 4 2.0837178826332092e-01</internalNodes>
          <leafValues>
            -1. 8.8235294818878174e-01</leafValues></_></weakClassifiers></_>
    <!-- stage 1 -->
    <_>
      <maxWeakCount>2</maxWeakCount>
      <stageThreshold>-1.7539060115814209e-01</stageThreshold>
      <weakClassifiers>
        <_>
          <internalNodes>
            0 -1 0 1.9990336894989014e-01</internalNodes>
          <leafValues>
            -8.9999997615814209e-01 8.9999997615814209e-01</leafValues></_>
        <_>
          <internalNodes>
            0 -1 10 -5.8271992020308971e-03</internalNodes>
          <leafValues>
            7.2460937500000000e-01 -1.</leafValues></_></weakClassifiers></_>
    <!-- stage 2 -->
    <_>
      <maxWeakCount>1</maxWeakCount>
      <stageThreshold>7.2043013572692871e-01</stageThreshold>
      <weakClassifiers>
        <_>
          <internalNodes>
            0 -1 3 2.7914848178625107e-02</internalNodes>
          <leafValues>
            -1. 7.2043013572692871e-01</leafValues></_></weakClassifiers></_>
    <!-- stage 3 -->
    <_>
      <maxWeakCount>2</maxWeakCount>
      <stageThreshold>-6.8777188658714294e-02</stageThreshold>
      <weakClassifiers>
        <_>
          <internalNodes>
            0 -1 1 5.1075947284698486e-01</internalNodes>
          <leafValues>
            -6.9767439365386963e-01 8.1081080436706543e-01</leafValues></_>
        <_>
          <internalNodes>
            0 -1 12 -8.9459912851452827e-04</internalNodes>
          <leafValues>
            6.7174094915390015e-01 -8.7958800792694092e-01</leafValues></_></weakClassifiers></_>
    <!-- stage 4 -->
    <_>
      <maxWeakCount>3</maxWeakCount>
      <stageThreshold>-1.1712882518768311e+00</stageThreshold>
      <weakClassifiers>
        <_>
          <internalNodes>
            0 -1 13 1.3116072863340378e-02</internalNodes>
          <leafValues>
            -8.8405799865722656e-01 6.7032968997955322e-01</leafValues></_>
        <_>
          <internalNodes>
            0 -1 6 -5.0725556910037994e-02</internalNodes>
          <leafValues>
            6.5225529670715332e-01 -8.2606244087219238e-01</leafValues></_>
        <_>
          <internalNodes>
            0 -1 11 -1.6975770995486528e-04</internalNodes>
          <leafValues>
            -9.6337211132049561e-01 5.3883218765258789e-01</leafValues></_></weakClassifiers></_>
    <!-- stage 5 -->
    <_>
      <maxWeakCount>2</maxWeakCount>
      <stageThreshold>-3.1655365228652954e-01</stageThreshold>
      <weakClassifiers>
        <_>
          <internalNodes>
            0 -1 9 -6.4735603518784046e-03</internalNodes>
          <leafValues>
            6.5909093618392944e-01 -8.0555558204650879e-01</leafValues></_>
        <_>
          <internalNodes>
            0 -1 7 -6.1746835708618164e-03</internalNodes>
          <leafValues>
            5.3394359350204468e-01 -9.7564458847045898e-01</leafValues></_></weakClassifiers></_>
    <!-- stage 6 -->
    <_>
      <maxWeakCount>3</maxWeakCount>
      <stageThreshold>-7.0111691951751709e-02</stageThreshold>
      <weakClassifiers>
        <_>
          <internalNodes>
            0 -1 8 -4.1542635299265385e-03</internalNodes>
          <leafValues>
            5.0000000000000000e-01 -9.2857140302658081e-01</leafValues></_>
        <_>
          <internalNodes>
            0 -1 2 -2.3406976833939552e-04</internalNodes>
          <leafValues>
            4.4252863526344299e-01 -9.4684904813766479e-01</leafValues></_>
        <_>
          <internalNodes>
            0 -1 5 5.0111198797821999e-03</internalNodes>
          <leafValues>
            -1. 4.1593110561370850e-01</leafValues></_></weakClassifiers></_></stages>
  <features>
    <_>
      <rects>
        <_>
          0 3 12 13 -1.</_>
        <_>
          6 3 6 13 2.</_></rects>
      <tilted>0</tilted></_>
    <_>
      <rects>
        <_>
          2 0 17 18 -1.</_>
        <_>
          2 6 17 6 3.</_></rects>
      <tilted>0</tilted></_>
    <_>
      <rects>
        <_>
          2 9 3 2 -1.</_>
        <_>
          2 10 3 1 2.</_></rects>
      <tilted>0</tilted></_>
    <_>
      <rects>
        <_>
          3 3 4 13 -1.</_>
        <_>
          5 3 2 13 2.</_></rects>
      <tilted>0</tilted></_>
    <_>
      <rects>
        <_>
          4 0 10 18 -1.</_>
        <_>
          4 6 10 6 3.</_></rects>
      <tilted>0</tilted></_>
    <_>
      <rects>
        <_>
          5 5 9 5 -1.</_>
        <_>
          8 5 3 5 3.</_></rects>
      <tilted>0</tilted></_>
    <_>
      <rects>
        <_>
          7 12 8 6 -1.</_>
        <_>
          7 15 8 3 2.</_></rects>
      <tilted>0</tilted></_>
    <_>
      <rects>
        <_>
          7 13 12 2 -1.</_>
        <_>
          7 14 12 1 2.</_></rects>
      <tilted>0</tilted></_>
    <_>
      <rects>
        <_>
          7 14 7 2 -1.</_>
        <_>
          7 15 7 1 2.</_></rects>
      <tilted>0</tilted></_>
    <_>
      <rects>
        <_>
          8 15 8 2 -1.</_>
        <_>
          8 16 8 1 2.</_></rects>
      <tilted>0</tilted></_>
    <_>
      <rects>
        <_>
          10 4 10 1 -1.</_>
        <_>
          15 4 5 1 2.</_></rects>
      <tilted>0</tilted></_>
    <_>
      <rects>
        <_>
          11 3 3 5 -1.</_>
        <_>
          12 3 1 5 3.</_></rects>
      <tilted>0</tilted></_>
    <_>
      <rects>
        <_>
          11 4 1 8 -1.</_>
        <_>
          11 8 1 4 2.</_></rects>
      <tilted>0</tilted></_>
    <_>
      <rects>
        <_>
          11 5 9 8 -1.</_>
        <_>
          14 5 3 8 3.</_></rects>
      <tilted>0</tilted></_></features></cascade>
</opencv_storage>
